%YAML:1.0
---
myHogDector2: !!opencv-object-detector-hog
   winSize: [ 64, 128 ]
   blockSize: [ 16, 16 ]
   blockStride: [ 8, 8 ]
   cellSize: [ 8, 8 ]
   nbins: 9
   derivAperture: 1
   winSigma: 4.
   histogramNormType: 0
   L2HysThreshold: 2.0000000000000001e-01
   gammaCorrection: 1
   nlevels: 64
   signedGradient: 0
   SVMDetector: [ 3.31621431e-03, -1.34785175e-02, -8.11965298e-03,
       -9.59098246e-03, 1.80033166e-02, -2.41430886e-02, 1.44819275e-03,
       -5.81396604e-03, 1.12854810e-02, 3.42486575e-02, 4.13855258e-03,
       3.82913300e-03, -5.28492965e-03, 1.56346802e-02, 2.27456875e-02,
       2.64169462e-03, -2.86512356e-02, 9.17330757e-03, 2.41477452e-02,
       4.91070282e-03, -4.57603601e-04, 3.97826312e-03, 3.39295133e-03,
       -1.06151784e-02, 1.50417294e-02, -4.91391635e-03, 2.67458186e-02,
       1.96216218e-02, 1.03738867e-02, -9.55798477e-03, 1.63725135e-03,
       -1.14890439e-02, 1.15906876e-02, 8.89403746e-03, -1.15650250e-02,
       -9.56184138e-03, 3.64164729e-03, -1.18751917e-02, -9.28895373e-04,
       2.98689352e-03, -6.91496721e-03, 3.08210868e-03, 4.94903792e-03,
       -1.03105353e-02, 1.82404146e-02, 1.38643337e-03, -1.04886189e-03,
       4.86150291e-03, 1.23228543e-02, 1.16720907e-02, 1.07670855e-03,
       6.19970215e-03, 1.97095126e-02, 1.20998975e-02, 4.37807711e-03,
       -6.04606794e-06, -6.70494419e-03, 4.99253068e-03, -1.65121146e-02,
       -4.32669092e-03, -9.33949195e-04, 8.45127646e-03, -2.50601931e-03,
       2.55515077e-03, 5.51708229e-03, -8.80763214e-03, 1.06184306e-02,
       3.84199433e-03, 6.44625491e-03, 9.23021231e-03, 2.23904592e-03,
       1.37111696e-03, 4.74938424e-03, 6.33087009e-03, -1.61734968e-02,
       -3.69754678e-04, -2.66684336e-03, 8.01837014e-04, 1.16700726e-02,
       -8.48395471e-03, -4.85355174e-03, 2.91336849e-02, -3.12046334e-03,
       -1.08720851e-03, -1.37725947e-02, -6.39718911e-03,
       -7.31992128e-04, 5.31499833e-03, 1.12019898e-03, -4.75041056e-03,
       -6.99319784e-03, 1.55753049e-03, -1.11777894e-03, 2.01637689e-02,
       1.81384792e-03, 1.05597060e-02, 1.89168993e-02, 1.03426958e-02,
       -6.35283114e-03, 1.57960958e-03, -1.68859605e-02, -2.47825570e-02,
       -1.46997711e-02, -4.26275143e-03, -6.75595657e-05, 2.51857867e-03,
       8.13837443e-03, -1.89455971e-03, 8.91677046e-04, 2.31590141e-02,
       8.95032845e-03, -7.85101671e-04, -4.11932077e-03, -1.20907137e-02,
       -1.38291018e-02, -2.75412039e-03, 7.29013840e-03, -9.47614107e-03,
       3.25691374e-03, 1.88609515e-03, -2.28266610e-04, -6.59990543e-03,
       -4.69929166e-03, -1.44588426e-02, 9.47549194e-03, -7.27315899e-03,
       -5.20716282e-03, 1.10911727e-02, 1.19745510e-03, -5.01867896e-03,
       -3.54975415e-03, 2.68177385e-03, 2.14258954e-02, 1.95294786e-02,
       3.22730513e-04, -6.64075511e-03, -3.64408043e-04, -6.78744027e-03,
       -3.20871989e-03, -8.04211665e-03, 8.31594225e-03, -9.70808251e-05,
       -5.85738104e-04, -1.77938621e-02, -5.89463674e-03, 1.04926182e-02,
       3.48621653e-03, -2.21887458e-04, 3.00759403e-03, -1.12610804e-02,
       8.89680348e-03, 1.95785407e-02, -1.08071659e-02, -1.46044949e-02,
       -8.63626692e-03, 7.39536667e-03, 7.73571292e-03, -5.68566937e-03,
       -9.59664397e-03, -3.48767935e-04, 3.08900769e-03, 1.46002346e-03,
       -7.55498605e-03, 2.03090217e-02, -2.34543323e-03, -1.32228044e-04,
       -1.37243811e-02, 8.65074992e-03, 2.85781035e-03, 5.57913352e-03,
       -2.36609541e-02, -9.26964078e-03, 7.06376275e-03, 4.94421693e-03,
       -1.07390862e-02, 3.31335142e-03, -4.35133727e-04, -4.07310063e-03,
       -4.46355529e-03, -5.96075272e-03, -2.09035221e-02,
       -1.24162156e-02, -1.30091989e-02, 5.77430474e-03, 3.81363463e-03,
       1.99946738e-03, -4.73287934e-03, 9.13786422e-03, 2.50998279e-03,
       -6.27397979e-03, -1.48979127e-02, -2.15455517e-02,
       -1.37455221e-02, 2.74271751e-03, -9.18343291e-03, 2.87291268e-03,
       5.92385372e-03, -1.21266982e-02, -1.09983878e-02, 3.12264281e-04,
       -1.55055495e-02, 8.03336874e-03, -3.74263525e-03, 2.74450635e-03,
       -1.95461698e-02, 1.05635384e-02, -1.07047260e-02, 8.28637742e-04,
       1.61506161e-02, 4.74044215e-03, 5.56340208e-03, -2.19706278e-02,
       4.09974437e-03, -1.24574667e-02, 1.76894153e-03, -3.69218062e-03,
       1.00015122e-02, 1.14143896e-03, -1.55053642e-02, -7.25456455e-04,
       8.18030816e-03, 6.03805622e-03, 2.12005759e-03, 2.09648404e-02,
       1.65712219e-02, -9.08760633e-03, -1.17439022e-02, -2.25876402e-02,
       1.84459530e-03, -7.18361465e-03, 4.34946967e-03, -3.73614989e-02,
       5.03532123e-03, 1.01192319e-03, 1.96113382e-02, 5.27790457e-04,
       9.65065230e-03, 1.49635365e-02, 9.32066236e-03, 6.41055079e-03,
       2.36490089e-03, 2.21932810e-02, -5.91043523e-03, -1.25460137e-04,
       -2.49302946e-03, 5.29592438e-03, -4.58466355e-03, -1.36657339e-02,
       1.43508492e-02, -9.19231959e-03, -2.03697375e-04, -1.21825133e-02,
       -1.68670714e-03, 1.08058797e-02, -9.92462318e-03, 1.02429567e-02,
       1.33272111e-02, 6.53893175e-03, -2.57387795e-02, 1.03399390e-02,
       7.29560247e-03, -4.40189196e-03, 2.57537514e-03, -1.73064359e-02,
       -1.62998587e-02, 5.33684529e-03, 8.14531185e-03, -1.68317910e-02,
       5.66235324e-03, -4.87269339e-04, 1.13358349e-02, -6.26881374e-03,
       6.19031535e-03, 1.88804008e-02, 2.05815374e-03, 2.57923771e-02,
       1.18271466e-02, 2.72573475e-02, 1.28732575e-02, -1.07394776e-03,
       2.57487525e-04, -6.16777572e-04, -7.86020420e-03, -9.64315608e-03,
       6.95431884e-03, -1.91699632e-03, 1.06124505e-02, -2.86187814e-03,
       1.53378455e-03, -5.29724918e-03, 6.43655006e-03, 4.01668996e-03,
       -1.45680048e-02, -6.52975775e-03, -3.17825680e-03, 1.32484976e-02,
       -7.26829469e-03, -1.49472617e-02, 1.00129787e-02, 1.08567160e-02,
       1.53830219e-02, -1.97670981e-03, -2.25033192e-03, 8.69549252e-03,
       2.23858953e-02, -1.15328925e-02, 6.45929109e-03, -1.64638157e-03,
       1.62204187e-02, 8.51263572e-03, -1.34619735e-02, 1.07167698e-02,
       4.34423360e-04, 1.74093805e-02, -5.78097627e-03, -1.43964533e-02,
       -1.86638143e-02, -6.56353170e-03, -6.25543238e-04, 7.32072955e-03,
       1.82416178e-02, -4.20275563e-03, -2.70693842e-03, -2.54806932e-02,
       -2.42261142e-02, 6.43086759e-03, -7.31830439e-03, 4.53947764e-03,
       3.05541954e-03, -1.64466687e-02, 1.16916541e-02, 1.22610293e-02,
       -4.75709001e-03, 1.10302437e-02, 3.97728663e-03, -2.89439168e-02,
       -7.05295941e-03, 1.15814945e-03, -4.96312138e-03, 3.52684967e-03,
       -3.74185015e-03, -1.02324672e-02, 1.35334423e-02, -1.10058556e-03,
       2.17521260e-03, 1.81950890e-02, -1.55499100e-03, 5.93556277e-03,
       2.17703488e-02, 1.76258460e-02, -1.07361497e-02, -3.30746360e-03,
       3.63469543e-03, 7.89637025e-03, 1.26738762e-02, -8.83862469e-03,
       -9.52591887e-04, 1.06040062e-02, -1.16507430e-03, -3.51203908e-03,
       -3.53768375e-03, -1.16972439e-03, -9.40527953e-03, 3.63641209e-03,
       -2.85298040e-04, -1.04274508e-02, -1.61122959e-02, 4.88120504e-03,
       6.32225769e-03, -3.45558836e-03, -8.22781026e-03, -1.36475191e-02,
       -1.24576055e-02, -2.67702318e-03, -1.51664512e-02,
       -7.57083436e-03, 6.54741749e-03, 2.07687286e-03, -1.45536242e-02,
       -2.89234286e-03, 6.48512365e-03, -3.64936050e-03, -1.51222870e-02,
       5.70657477e-03, -9.09273699e-03, 1.33489585e-02, 1.40098557e-02,
       1.07213417e-02, 1.31161744e-03, -1.61737110e-02, 7.43809110e-03,
       -7.04550138e-03, 5.58995036e-03, -1.79797057e-02, 6.19042059e-03,
       -1.05537905e-03, -5.74198505e-03, 3.55626387e-03, 4.07734513e-03,
       -6.26362022e-03, -4.80771298e-03, -1.33801373e-02,
       -1.68808810e-02, -8.64327978e-03, -9.32937209e-03, 4.90187176e-06,
       -1.89266808e-03, -2.03025546e-02, 5.72948810e-03, -1.16009638e-02,
       -2.07434166e-02, -2.09131651e-02, 7.36008724e-03, -6.36391575e-03,
       6.93366118e-03, 1.29828637e-03, -7.82518461e-03, -9.50509403e-03,
       -3.26241087e-03, 1.65006667e-02, 3.91504727e-03, -4.73271124e-03,
       -5.63921547e-03, -2.53649312e-03, 5.53733844e-04, 2.88848812e-03,
       1.13946050e-02, 1.11301197e-02, -1.08507024e-02, 8.05281103e-03,
       -3.60832456e-03, -7.02802557e-03, -7.16036698e-03, 2.82267784e-03,
       -1.21010495e-02, 2.04278156e-02, -3.04464926e-03, 1.36339795e-02,
       -2.92857941e-02, -2.58722488e-04, 4.35471814e-03, 1.36157149e-03,
       1.63183524e-03, -1.24083657e-03, -1.07427081e-03, 5.82626206e-04,
       -3.63280065e-03, -1.79304350e-02, -1.72124058e-02,
       -4.87572607e-03, 1.58429276e-02, 4.30538226e-03, 1.45572023e-02,
       2.23204903e-02, -3.72224092e-03, 1.31265167e-02, -5.09753032e-03,
       9.76699404e-03, -5.36549417e-03, 5.92410751e-03, 1.60703976e-02,
       1.64975915e-02, 1.19749438e-02, -3.01490934e-03, -5.62739908e-04,
       5.35203563e-03, 3.18920123e-03, 9.35054559e-05, -1.14559401e-02,
       1.20677315e-02, -1.47670531e-03, 1.67379007e-02, 1.46831535e-02,
       -5.16230590e-04, -3.44517920e-03, 6.86521688e-03, -1.12757972e-02,
       5.74731408e-03, -4.62282309e-03, -1.03651425e-02, 9.20862239e-03,
       -3.63101414e-03, 2.47755228e-03, -8.03421158e-03, -1.29944761e-04,
       2.56748311e-03, -1.64051761e-03, 1.60383340e-02, 8.85357428e-03,
       4.80882358e-03, -1.80051778e-03, 8.79574195e-03, 3.12460028e-03,
       7.89274555e-03, 1.80037750e-03, -2.97002844e-03, -9.19562226e-05,
       4.37751273e-03, 7.64067844e-03, 1.78295635e-02, 3.43233184e-03,
       9.77522787e-03, 3.01983394e-03, 9.98288114e-03, 1.05464812e-02,
       6.48026401e-03, -1.42179588e-02, -1.04778158e-02, -9.78966360e-04,
       2.11720672e-02, 3.15404986e-03, 8.55453126e-03, 3.95639939e-03,
       9.01825819e-03, -1.59197245e-02, 9.26311407e-03, -9.89821926e-03,
       -2.87265405e-02, -8.51306226e-03, -1.63459070e-02,
       -1.52172139e-02, 1.59734543e-02, 5.50710410e-03, -4.25134413e-03,
       -3.10771726e-03, 2.34921034e-02, 3.43844364e-03, 9.98621155e-03,
       9.14049987e-03, 1.67990923e-02, -2.08141236e-03, 9.23403073e-03,
       -1.26258293e-02, -7.51566561e-03, -2.78479466e-03,
       -2.43716943e-03, 3.13890949e-02, 1.17985848e-02, -7.16547295e-03,
       7.88682513e-03, 1.70391090e-02, 1.80095900e-03, -4.91781393e-03,
       3.68839293e-03, 2.63728742e-02, -4.16824501e-03, 2.46902600e-05,
       -1.22989332e-02, 2.06976701e-02, 2.36007962e-02, -1.52768544e-03,
       5.24077192e-03, 6.89530186e-03, -3.67298839e-03, 4.84047690e-03,
       1.54754855e-02, 1.13462824e-02, 6.46130648e-03, 1.14657574e-04,
       -3.69424513e-03, -6.78915856e-03, 3.06595908e-03, -3.82895675e-03,
       -9.56586841e-03, 1.28661320e-02, -1.36133293e-02, 2.79562501e-03,
       1.61446948e-02, 1.59811450e-03, -1.54244248e-02, -2.62525957e-03,
       3.49928346e-03, 9.17270686e-03, 1.39345732e-02, 1.20264478e-02,
       6.02821121e-03, 3.05029890e-03, -1.80925559e-02, 4.37750295e-03,
       -4.63229837e-03, 1.00443205e-02, 2.47093150e-04, -9.95049533e-03,
       -4.11159312e-03, -6.00898452e-03, 1.19275623e-03, -1.08863576e-03,
       -2.37792963e-03, -1.76587384e-02, 5.46331110e-04, 8.07367079e-03,
       1.52298613e-02, -1.51756210e-02, -3.46404198e-03, -2.95939128e-04,
       -3.67978564e-03, 1.66070126e-02, -9.20873415e-03, 1.94607619e-02,
       1.40223056e-02, -6.31629908e-03, -6.25884300e-03, -1.18196700e-02,
       2.66972948e-02, -1.13191791e-02, 1.94445234e-02, -2.68953643e-03,
       -1.49626369e-02, 7.80467968e-03, 8.49402975e-03, -1.09919589e-02,
       -8.17067642e-03, -3.80284782e-03, 1.10628537e-03, 2.36698287e-03,
       5.72135067e-03, 1.55084133e-02, -4.77475254e-03, -1.79862697e-03,
       -2.78434902e-03, 1.75187718e-02, 1.19048860e-02, -9.35315387e-04,
       -1.91656426e-02, -5.50093362e-03, -3.45230242e-03, 6.66908408e-03,
       1.37244666e-03, 1.61708556e-02, 8.17997102e-03, -2.99211335e-03,
       -1.21142650e-02, 8.11307970e-03, 5.92417689e-03, 2.52398336e-03,
       7.66221713e-03, -2.22891960e-02, 9.73891991e-04, 1.58215761e-02,
       -9.58166178e-03, -1.77534502e-02, -1.13454191e-02,
       -5.33692678e-03, 3.46219842e-03, 8.06393195e-03, 1.34146363e-02,
       5.40115172e-04, -5.51963178e-03, -1.34177404e-02, 2.92617385e-03,
       1.67905930e-02, -3.42576811e-03, 5.54932887e-03, -1.09657235e-02,
       4.54031257e-03, -9.65981092e-03, 9.57866490e-04, 2.94527132e-03,
       1.21753123e-02, -9.51087422e-05, -1.49597432e-02, 3.67188221e-03,
       1.31011736e-02, -1.70132350e-02, -1.57340113e-02, -1.96303371e-02,
       -1.02666952e-02, -6.25028089e-03, 2.32984847e-03, -1.50701646e-02,
       3.15810810e-03, 8.14679824e-03, 1.21241985e-02, 5.60579938e-04,
       -4.83186310e-03, 2.50660861e-03, 1.71911083e-02, -9.72560234e-03,
       -1.47398133e-02, 3.71780305e-04, 2.89819133e-03, -7.01732794e-03,
       -1.78991463e-02, -8.70074891e-03, 2.35621482e-02, 2.08666716e-02,
       -2.84187868e-03, -2.32665930e-02, -1.03620254e-02,
       -4.54187626e-03, 3.08604259e-03, 2.19374849e-03, -6.49810210e-03,
       1.34300655e-02, 1.46541763e-02, -1.08036101e-02, -1.00842351e-02,
       9.05581657e-03, -1.78777725e-02, -1.07169505e-02, -2.48671090e-03,
       6.81275735e-03, 1.12438807e-02, 3.08394935e-02, -4.98602912e-03,
       -5.24598546e-03, 3.62501969e-03, -3.23094428e-03, -2.26827525e-03,
       1.78381894e-02, -4.16613743e-03, 1.60648171e-02, -3.25921830e-03,
       -3.80656384e-02, 1.83101045e-03, 1.16284322e-02, -1.55419670e-02,
       -6.39079884e-03, 3.76890716e-03, -2.68459087e-03, -1.70818798e-03,
       2.08287053e-02, -9.67706181e-03, 1.09035000e-02, 2.73927413e-02,
       8.61132704e-03, -1.47555107e-02, 2.98041641e-03, -1.13998458e-03,
       3.29411682e-03, 1.40432585e-02, 1.18868961e-03, 4.81572794e-03,
       7.28353392e-03, 8.51802900e-03, -8.56339466e-03, 9.63750575e-03,
       -1.07693067e-02, 1.32614197e-02, 9.50644910e-03, -4.91166441e-03,
       6.26663351e-03, 1.52190949e-03, 6.43476902e-04, -2.66205496e-03,
       7.79478299e-03, -1.31114302e-02, 2.76785623e-03, 1.69780193e-04,
       6.98837801e-04, 2.61857291e-03, 7.63303926e-03, -1.24353711e-02,
       6.69238018e-03, -1.39903938e-02, 6.02505310e-03, 2.16039903e-02,
       3.21412133e-03, 2.89898366e-03, 1.55818444e-02, 1.20288003e-02,
       7.88817462e-03, -4.97399550e-03, 1.54730165e-02, 1.62985679e-02,
       -1.03392068e-03, -1.29927916e-03, 8.89834133e-04, -1.00370087e-02,
       5.59146889e-03, -7.78102921e-03, -3.41099850e-03, -9.60066263e-03,
       -9.87567939e-03, -6.46314211e-03, -1.33830064e-03, 9.02425777e-03,
       1.06858816e-02, 8.54669139e-03, -2.79347971e-03, 2.09938250e-02,
       6.29962597e-04, -1.38360336e-02, -9.13757365e-03, -3.15316534e-03,
       -5.74319996e-03, -1.12907374e-02, 1.20667927e-02, -1.98090393e-02,
       -1.81912968e-03, 1.79086241e-03, 5.85800642e-03, 7.37830112e-03,
       -3.61184753e-03, 3.58400284e-04, 1.59381703e-02, -7.90529884e-03,
       -8.75237584e-03, 3.31067597e-03, 1.29535869e-02, 1.86204892e-02,
       6.47448050e-03, 1.21065881e-02, -7.43767899e-03, 6.62770169e-03,
       -3.14627052e-03, -1.09090749e-02, 2.36622877e-02, 2.58953124e-02,
       -8.06499831e-03, 2.56063156e-02, 3.34180444e-02, 3.95918358e-03,
       1.15370695e-02, 1.39810359e-02, 8.42822250e-03, 1.82669796e-02,
       1.52901346e-02, 6.98387157e-03, 1.51302759e-02, 1.37671921e-02,
       -2.53499439e-03, 2.68365331e-02, 9.81685426e-03, 7.75749702e-03,
       3.14761465e-03, 9.62486025e-03, -1.92277657e-03, 3.95049993e-03,
       6.27920125e-03, -1.17875170e-02, -1.00118322e-02, -4.24176315e-03,
       -8.31162836e-03, -1.55932456e-03, 1.22161377e-02, -7.10803666e-04,
       9.73413407e-05, 1.79254934e-02, -1.40465936e-02, -4.94183321e-03,
       6.53304276e-04, -1.52253238e-02, -1.35603007e-02, 1.70011236e-03,
       -6.99048955e-03, -4.70591258e-05, 2.93073338e-02, -8.29169154e-03,
       1.72232930e-02, 2.68224068e-02, 2.49205735e-02, 1.59422513e-02,
       3.58987297e-03, 2.03327640e-04, 9.11187660e-03, 1.29555247e-03,
       -1.49450125e-03, 9.98486020e-03, 1.51170902e-02, 9.53261368e-03,
       1.81106683e-02, 6.92748651e-03, -1.86174959e-02, -1.06903573e-03,
       -8.94475088e-04, -2.14527212e-02, -2.98032211e-03,
       -1.16415499e-02, -1.35312248e-02, -7.60118198e-03, 3.72535270e-03,
       -1.06834313e-02, -1.12668751e-02, -2.25537713e-03,
       -1.82876159e-02, -3.25260730e-03, 6.79565780e-03, 1.03197095e-03,
       3.24511924e-03, -5.73276123e-03, -1.39709143e-02, 9.15155222e-04,
       1.06916260e-02, 1.05025445e-03, -1.74892806e-02, 9.38285422e-03,
       -2.42472277e-03, 1.21404110e-02, 1.13114631e-02, -6.34983927e-03,
       -3.39487451e-03, -4.89289081e-03, -4.84145293e-03, 6.93829264e-03,
       1.55221354e-02, -1.76275782e-02, -7.76305748e-03, -1.08059216e-02,
       1.19151007e-02, -1.60385966e-02, 1.98610723e-02, 4.23537567e-03,
       -2.31065117e-02, -1.06985746e-02, -2.46462040e-03,
       -6.16819970e-03, 1.60233816e-03, -5.53633645e-03, -1.27651682e-02,
       2.82573048e-03, -1.17405821e-02, 7.29486300e-03, -3.18275578e-03,
       -1.15907034e-02, -1.38831157e-02, 1.97932636e-03, -3.02966386e-02,
       -6.77410513e-03, 2.19828193e-03, 8.65410455e-03, 2.09269300e-02,
       2.23941896e-02, 1.00826742e-02, 8.09077267e-03, 1.19401738e-02,
       -1.12198424e-02, -1.64780226e-02, 2.95159640e-03, -6.16469001e-03,
       8.13902169e-03, 2.46416479e-02, 1.10398876e-02, 7.70375016e-04,
       -8.85984767e-03, 2.95732287e-03, 2.09321384e-03, -7.21979886e-03,
       -4.47918102e-03, 1.21656870e-02, -1.73179507e-02, 5.11350669e-03,
       2.51390622e-04, 4.28092084e-04, -9.14157089e-03, -1.97847281e-02,
       -5.37081109e-03, 5.47937350e-03, -1.10162329e-02, -5.98753989e-03,
       -8.33854824e-03, 1.02999648e-02, -1.82329013e-03, -1.49765769e-02,
       2.07264777e-02, -9.09157749e-03, -7.18914811e-03, -4.77659516e-03,
       7.93076959e-03, 3.67886461e-02, 1.56324860e-02, 1.22560961e-02,
       -6.39859261e-03, -1.34042150e-03, -4.42694919e-03,
       -6.88850414e-03, -4.54784743e-03, 2.62296684e-02, 1.02877831e-02,
       1.44899357e-02, 1.81525107e-02, -5.36963250e-03, 1.05666686e-02,
       4.87697311e-03, -4.62553790e-03, -4.15777694e-03, -1.01972809e-02,
       -3.88203096e-03, 4.11677361e-03, 2.51838611e-03, -4.77177370e-03,
       2.29459628e-03, -1.02660377e-02, -2.62638126e-02, -4.27456154e-03,
       -3.16017400e-03, -2.08648033e-02, -3.85370082e-03,
       -1.02509754e-02, -3.93587723e-03, 9.96022951e-03, 1.32131353e-02,
       1.14585012e-02, 1.61073338e-02, 1.11292005e-02, 1.77183263e-02,
       3.10223177e-03, 1.99462269e-02, 1.01109324e-02, 2.05736738e-02,
       7.15660118e-03, 7.83796073e-04, 4.92442586e-03, 5.04889200e-03,
       4.49182978e-03, 6.53205067e-03, 4.01069503e-03, 3.71173111e-04,
       -9.85144754e-04, -1.60097722e-02, 6.87207421e-03, 1.85989169e-03,
       -1.44277627e-04, 3.25484425e-02, -1.85238183e-04, -6.46670721e-03,
       4.26781084e-03, 1.23567758e-02, 4.17323411e-03, 1.37745161e-02,
       -1.37279108e-02, -1.40406555e-02, -1.03194825e-02, 6.97152037e-03,
       4.23123501e-03, 2.06457991e-02, 5.67024155e-03, 3.90860531e-03,
       1.44172609e-02, 5.29160304e-03, 8.94099381e-03, 1.81774478e-02,
       1.63777657e-02, -5.02708694e-03, -1.83928572e-02, -2.20311861e-02,
       -3.62545513e-02, 4.03472222e-03, -1.87697951e-02, 7.76593527e-03,
       9.80291609e-03, 4.54771379e-03, -8.56120232e-03, -4.78058914e-03,
       6.35005126e-05, 1.64950937e-02, 1.50508899e-03, -1.23635167e-02,
       3.61104077e-03, -2.70106760e-03, 8.77961423e-03, 1.26385447e-02,
       2.03928305e-03, 4.66524437e-03, -1.79139432e-02, -1.00283269e-02,
       -3.90427699e-03, 1.41514593e-03, 6.01112435e-04, 7.68976146e-03,
       -1.98044255e-02, 5.74980443e-03, 5.57234185e-03, 3.20035126e-03,
       -6.75153174e-03, -1.10054447e-03, -1.37019875e-02,
       -6.99719531e-04, 5.60947135e-03, -8.17602791e-04, 2.27132626e-03,
       7.77782220e-03, -1.76252313e-02, -1.06319168e-03, 1.60538289e-03,
       -6.61297410e-04, 1.24686863e-02, 1.41844982e-02, -2.13085092e-03,
       1.24796722e-02, -2.42759730e-03, -9.45719052e-03, -9.87045933e-03,
       8.19698442e-03, 8.87732394e-03, -8.39319732e-03, 1.15348427e-02,
       5.08700917e-03, -5.59045374e-03, 2.20428742e-02, -5.91216283e-03,
       -2.81733181e-03, 7.63169723e-03, 8.03040527e-03, -4.63328417e-03,
       -1.96798425e-02, -4.88848425e-03, 1.15016550e-02, -3.09333834e-03,
       4.82486188e-03, 6.90134522e-03, -5.63581334e-03, 1.02080209e-02,
       -1.11935837e-02, 7.11608352e-03, -1.91121316e-03, -6.09897869e-03,
       -9.30823106e-03, -1.25634344e-02, -3.96195287e-03, 3.34120632e-05,
       -1.66634433e-02, 8.17338564e-03, -9.25857294e-03, 8.45060276e-04,
       -5.97992446e-03, -1.27732111e-02, -8.67939647e-03, 9.27243754e-03,
       -2.69494951e-03, 5.26104821e-03, -3.89373116e-02, -7.56135536e-03,
       -1.03337998e-02, -9.76505131e-03, 2.50213314e-02, 1.49739906e-02,
       1.68625433e-02, 4.91987960e-03, 1.34839760e-02, -1.90530885e-02,
       8.24087486e-03, 3.33533227e-03, -1.35790017e-02, -9.00841318e-03,
       1.83352157e-02, 3.52210887e-02, 2.87638120e-02, 2.88052950e-02,
       -2.57112691e-03, -5.92499180e-03, -3.14403437e-02,
       -5.47626521e-03, 1.78385023e-02, 2.35694982e-02, 2.87559777e-02,
       1.88195426e-02, 9.60099697e-03, 2.14105146e-03, 1.11971539e-03,
       -1.07036531e-02, -3.41413473e-03, 8.59075598e-03, 3.22098774e-03,
       1.18244048e-02, -7.50170415e-03, 6.02585124e-03, -3.04257846e-03,
       -9.21269041e-03, 1.50836715e-02, 1.53388605e-02, -1.86212044e-02,
       -1.92389712e-02, -1.11102196e-03, 9.60554928e-03, 1.08762947e-03,
       -7.47743202e-03, -4.26457217e-03, 2.77664512e-03, 9.94524173e-03,
       2.59974804e-02, 1.32128445e-03, 1.11281266e-02, -8.11142009e-03,
       4.36995132e-03, -1.21342389e-04, -1.21706435e-02, 1.46673145e-02,
       2.46491004e-02, 4.73567098e-03, 5.50536066e-03, 2.43599731e-02,
       1.83508210e-02, 1.98364276e-02, -7.03112409e-03, 2.80188862e-02,
       -1.49524829e-03, 1.51087120e-02, 1.28592914e-02, 3.22105698e-02,
       4.41777520e-02, 3.07266656e-02, 1.28734270e-02, -2.66702045e-02,
       -8.16185400e-03, 9.49453155e-04, -6.15958357e-03, 1.49913216e-02,
       1.45368874e-02, 1.02508105e-02, -5.24100754e-03, -1.10829966e-02,
       -1.19312080e-02, -4.09066770e-03, 4.54500504e-03, 6.20244071e-04,
       -1.46415504e-02, 1.89380851e-02, 3.66079062e-02, 3.77040207e-02,
       8.21075588e-03, 3.84154310e-03, 1.89039968e-02, 1.69962123e-02,
       8.39266181e-03, -1.09934518e-02, -1.65957436e-02, 1.22514879e-02,
       -1.30225951e-02, -1.76991783e-02, -1.12905251e-02,
       -8.04486033e-03, -1.38419392e-02, -2.85852738e-02, 4.01599333e-03,
       3.88502628e-02, 1.05811711e-02, 1.04508484e-02, 1.54839491e-03,
       -6.47459039e-03, 1.35685112e-02, 4.16943207e-02, -3.12172552e-03,
       1.12770675e-02, 9.00837779e-03, -2.32730340e-02, -2.73169787e-03,
       -2.09285622e-03, -1.02387033e-02, 1.65490787e-02, 2.07373425e-02,
       6.14237739e-03, -6.20364025e-03, -5.01133408e-03, 8.01808143e-04,
       -7.27608427e-03, -9.76780988e-03, 1.26309320e-02, 4.01952909e-03,
       1.69444606e-02, -1.16176633e-02, -7.44275225e-04, -5.99692995e-03,
       -8.67423322e-03, -9.13223345e-03, -1.63896438e-02, 3.98357632e-04,
       -6.37493143e-03, 1.22763012e-02, 2.98487451e-02, -4.93747136e-03,
       1.45360613e-02, 4.17524297e-03, 7.10902445e-04, -5.51111763e-03,
       2.01395014e-03, 1.05385948e-02, 2.31065340e-02, 7.79678486e-03,
       -4.60745432e-05, 1.97824389e-02, 1.56987682e-02, 5.70490398e-03,
       -5.26956050e-03, -1.24305142e-02, 8.94951727e-03, 2.56408136e-02,
       1.53127620e-02, 1.02674598e-02, 1.43290292e-02, -9.76217724e-03,
       1.64357219e-02, 1.77939237e-05, -1.37499138e-03, -9.40562040e-03,
       -8.05211626e-03, 1.81688722e-02, -2.40069162e-03, 2.93497997e-03,
       -1.15633095e-02, -1.07404822e-02, -4.81770886e-03, 1.07765030e-02,
       7.12726684e-03, -7.26013305e-03, 2.33021402e-03, 2.20280862e-03,
       2.08930708e-02, 1.72278229e-02, 5.91982622e-03, -1.96226072e-02,
       -1.01046944e-02, -5.52003970e-04, 2.87585091e-02, 2.79360730e-03,
       1.38628343e-02, 1.60011016e-02, 1.19859036e-02, -2.76297214e-04,
       -1.30734574e-02, -5.79149462e-03, -3.29346419e-03, 1.08366776e-02,
       -1.75478477e-02, 1.31251849e-02, 1.00990599e-02, -1.44960098e-02,
       -1.08813420e-02, -2.00773943e-02, 1.19654303e-02, 5.14693698e-03,
       6.54678605e-03, -7.22716190e-03, -3.34304757e-03, -3.10560968e-03,
       -6.59807213e-03, -1.93863083e-02, -6.91476325e-03,
       -6.60879246e-04, -9.35079064e-03, -1.18513061e-02, 7.04685599e-03,
       7.03553017e-03, 1.97023638e-02, 9.20493063e-03, -1.86689442e-03,
       2.60281772e-03, 1.38782617e-02, -7.41069857e-03, 4.78707952e-03,
       3.55035928e-03, 2.34325733e-02, 1.26216635e-02, 1.06630139e-02,
       4.26815171e-03, 4.30480903e-03, 9.45958216e-03, -3.44298058e-03,
       4.39208094e-03, 5.61574998e-04, 8.64648540e-03, -3.65543325e-04,
       -1.30185001e-02, 3.69169400e-03, -4.52406611e-03, 2.22558044e-02,
       -8.93064309e-03, -1.04986355e-02, 1.99898891e-03, -5.13923680e-03,
       4.99242160e-04, 7.79966242e-04, -9.26459790e-04, 5.30983368e-03,
       -9.08289012e-03, -2.38564122e-03, -1.34266978e-02,
       -7.43536185e-03, 9.19207744e-03, 9.98272095e-03, -2.59771431e-03,
       1.00094872e-02, -4.88094660e-03, 5.94341662e-03, -1.87313021e-03,
       1.73794720e-02, 2.51648035e-02, 1.58822071e-02, -3.61075415e-03,
       -2.26277094e-02, -1.02198590e-02, -3.71149555e-03,
       -1.50082866e-03, 1.46584846e-02, 1.53311798e-02, 2.47891154e-02,
       -1.82770519e-03, 3.07976105e-03, -1.19391712e-03, -6.27736887e-03,
       -3.41551937e-03, -1.90084189e-04, 1.87431602e-03, -5.85235097e-03,
       2.03440972e-02, 5.31435385e-03, -5.28565189e-03, -1.81686319e-02,
       -1.09946486e-02, -3.79772791e-05, -2.46094656e-03,
       -2.01933011e-02, 5.36228903e-03, 2.55626719e-02, -1.49134686e-03,
       -2.56840023e-03, 4.92284168e-03, -1.28908660e-02, -1.51070310e-02,
       -8.02920293e-03, -2.65196431e-03, -1.15114823e-03, 6.70956215e-03,
       -1.91499683e-04, -3.56881705e-04, -4.46493924e-03,
       -9.29026213e-03, -8.25688336e-03, -2.31176820e-02,
       -2.61743162e-02, -5.77342510e-03, 2.33361823e-03, 8.09133891e-03,
       6.28743740e-03, -4.94001852e-03, -1.16792964e-02, -1.04739061e-02,
       1.10749332e-02, -1.88902430e-02, -7.04648346e-03, 1.85058545e-02,
       3.17177176e-02, 4.88537457e-03, -5.53894461e-05, -7.85986148e-03,
       -1.15889236e-02, 1.30937772e-03, -1.57527123e-02, -3.77768115e-03,
       1.91086512e-02, -1.22840153e-02, 1.06013175e-02, -2.31273863e-02,
       9.53535270e-03, 6.31106179e-03, -1.05241071e-02, -1.79819595e-02,
       8.28369241e-03, -2.08392721e-02, 1.63085165e-03, 1.60081424e-02,
       -1.62958167e-02, -2.19376734e-03, -1.37457727e-02,
       -1.59897991e-02, 5.18882228e-03, 9.11605079e-03, 2.74436246e-03,
       -1.05080158e-02, 1.92135386e-02, -6.34565623e-03, -3.53674265e-03,
       -2.24776217e-03, 9.06027621e-04, -5.36147039e-03, -5.15398197e-03,
       -2.86943140e-03, 2.07883585e-02, 2.54214392e-04, -5.50567289e-04,
       -1.18327187e-03, 8.73220060e-03, -1.96479494e-03, 1.10723991e-02,
       -3.13440780e-03, 2.93180589e-02, -1.34862484e-02, 1.68632739e-03,
       -7.90342398e-04, -7.75313983e-03, -2.25892998e-02, 3.68224783e-03,
       -5.00791892e-03, -1.08368685e-02, -5.61993755e-03, 2.70172022e-03,
       2.34221783e-03, -1.63870619e-03, -2.22814595e-03, -4.16183728e-04,
       -7.45507190e-03, -8.13421793e-03, 7.02309469e-03, 4.65525780e-03,
       5.09595219e-03, 1.42946811e-02, 2.79236957e-03, 1.40469125e-03,
       -8.54950119e-03, 7.03254109e-03, -1.65994857e-02, 2.62340321e-03,
       1.50620174e-02, -3.56355362e-04, 1.96907241e-02, 9.79070179e-03,
       4.05846443e-03, 2.47185235e-04, 7.91072287e-03, -7.11374171e-03,
       1.68538410e-02, 7.75219174e-03, 1.12469513e-02, 2.89151296e-02,
       3.23541043e-03, -8.81083962e-03, -1.61136370e-02, 5.55975875e-03,
       -1.04139596e-02, 8.21561832e-03, 9.11615416e-03, -1.77580807e-02,
       -2.38608066e-02, -6.63164770e-03, -1.76495686e-02,
       -1.58340717e-03, -1.38364043e-02, -1.13082696e-02,
       -4.49409522e-03, 6.20824212e-05, 9.92343388e-03, 2.24455055e-02,
       1.75564270e-02, 1.76389907e-02, -3.75514943e-03, 3.65693495e-03,
       -5.13529114e-04, 8.55491590e-03, 3.64438887e-03, 3.60563304e-03,
       5.59240533e-03, 9.58442967e-03, 8.70347023e-03, 9.88677889e-03,
       -1.99465640e-03, -5.79149742e-03, 1.65451299e-02, 2.55378499e-03,
       -6.84328144e-03, 5.72376885e-03, 1.26188528e-02, 1.93412825e-02,
       1.18414052e-02, 9.58351791e-03, 2.18676366e-02, 1.58197675e-02,
       7.56595749e-03, -9.84942447e-03, -2.60911528e-02, -1.22334128e-02,
       -2.33864617e-02, -1.58947408e-02, -1.25687420e-02,
       -7.17475126e-03, -2.10299175e-02, -1.94760319e-02,
       -1.03180052e-03, 3.82964872e-02, 7.37062283e-03, 7.19249109e-03,
       2.26865057e-02, 1.60182323e-02, 1.46959294e-02, 2.42617019e-02,
       -2.50927685e-03, 1.87162659e-03, -1.78038571e-02, -1.21751176e-02,
       -7.71627203e-03, 1.26255825e-02, 5.04620885e-03, -5.08482149e-03,
       -1.39449285e-02, 9.23305808e-04, 1.44998152e-02, 9.76647157e-03,
       1.90620101e-03, 1.41322203e-02, -1.48355460e-03, 5.23120351e-03,
       8.70132819e-04, 4.07430856e-03, 5.12088370e-03, 6.64018851e-04,
       -2.63615493e-02, -2.91294511e-03, 2.05485746e-02, -9.98978596e-03,
       1.08509872e-03, 2.15823227e-03, -6.17958512e-03, -1.08658031e-04,
       5.98810613e-03, 8.62720516e-03, 1.10028461e-02, 1.37760611e-02,
       -1.72412228e-02, 2.80409120e-02, 7.49575812e-03, -9.72355902e-03,
       4.29526856e-03, 1.59123745e-02, -2.08816268e-02, -1.68046739e-03,
       -5.45255514e-03, -1.80465856e-03, 2.25086454e-02, -1.00774141e-02,
       -2.57412978e-02, -7.22650625e-03, 5.14989812e-03, -3.67416115e-03,
       1.71540061e-03, -5.10521838e-03, 6.70650834e-03, -8.25849455e-03,
       -1.57528110e-02, -6.22682320e-03, -1.03618845e-03,
       -2.23837182e-04, -2.43295524e-02, -1.92909837e-02,
       -8.57776555e-04, 1.58173498e-02, 1.46443043e-02, -1.63081586e-02,
       1.80968754e-02, 3.11052799e-02, 7.46795535e-03, 5.14035719e-03,
       -3.50806350e-03, 1.44444397e-02, 3.80057120e-03, -3.02976090e-03,
       -1.60080788e-03, -1.73491407e-02, 2.81948801e-02, -6.60345517e-03,
       -1.38328876e-02, -2.48016808e-02, 5.19744400e-03, 1.83691597e-03,
       -2.81213806e-03, -1.66252367e-02, -4.84517450e-03, 1.20282797e-02,
       -2.14167368e-02, -1.23650916e-02, 1.42893391e-02, 2.03363933e-02,
       5.25276177e-03, 1.44143784e-02, 2.82408181e-03, -1.16132190e-02,
       -9.19632334e-03, 6.93586143e-03, 2.23276149e-02, 1.63448621e-02,
       7.91988336e-03, 7.81848375e-03, 1.66400615e-02, 2.27252487e-02,
       1.23825036e-02, -1.35125108e-02, -2.51855683e-02, -1.47467759e-02,
       2.15238892e-02, 1.73983034e-02, 4.24311869e-03, 1.06578404e-02,
       2.28852965e-03, -1.61357503e-02, -1.80946402e-02, -3.62511189e-03,
       1.05058346e-02, 1.40322428e-02, 1.55464653e-02, 7.10877357e-03,
       2.19771191e-02, 3.64732333e-02, -2.66514183e-03, -5.06815827e-03,
       2.27958709e-02, 2.04480104e-02, 1.40622316e-03, 2.58267634e-02,
       9.62901767e-03, 8.23641103e-03, 4.96618403e-03, 1.72515195e-02,
       1.74548682e-02, 5.85022103e-03, 2.88479467e-04, 2.07858291e-02,
       8.98987113e-04, 8.89987592e-03, 1.01886049e-04, 2.08233912e-02,
       1.64798107e-02, 4.09764238e-03, 2.40114499e-02, 2.29005720e-02,
       3.02201696e-03, 8.55816994e-03, 8.21011490e-04, 1.17701814e-02,
       1.11947749e-02, 1.09817702e-02, 2.45286711e-02, 1.43649871e-03,
       2.98798718e-02, 1.46857304e-02, -3.52432532e-03, -1.18048564e-02,
       -1.17726307e-02, 5.31959720e-03, -7.25232111e-03, -4.32960922e-03,
       -2.10907087e-02, 1.39933992e-02, 3.51153128e-02, 2.48893630e-02,
       2.61782715e-03, 2.27050167e-02, 2.60949265e-02, 2.32561547e-02,
       7.51572894e-03, -1.62362866e-02, -1.39741497e-02, -6.59347931e-03,
       -6.08959701e-04, 2.90464144e-03, -3.08817462e-03, 2.42985087e-03,
       -1.79455162e-03, -2.43828818e-02, -5.61447162e-03, 9.71332844e-03,
       1.95807815e-02, 1.12779550e-02, -9.11346730e-03, 2.27494724e-02,
       2.15528812e-02, 2.08986960e-02, -2.74331849e-02, -1.62309837e-02,
       -1.77759882e-02, -1.24412612e-03, 2.72127171e-03, -4.31641983e-03,
       -5.22378227e-03, 5.59372827e-04, -2.01153220e-03, -4.53892071e-03,
       -2.93584028e-03, 1.08693978e-02, 3.14078014e-03, 1.13619342e-02,
       6.43760152e-03, 1.51690878e-02, 4.74850275e-03, 7.16006104e-03,
       -2.61832830e-02, -1.72881018e-02, -8.56717397e-03,
       -2.25058012e-02, -1.60633903e-02, -1.65357739e-02, 5.70568722e-03,
       1.08341044e-02, -3.31408181e-03, -7.83966482e-03, 6.84868079e-04,
       5.15689375e-04, 1.21897962e-02, 1.18729724e-02, -6.28783181e-03,
       3.13476450e-03, 3.16346693e-03, 3.83073930e-03, -1.14190467e-02,
       -2.57331529e-03, -6.38679927e-03, -2.46394752e-03, 1.17461970e-02,
       -2.38883495e-02, -5.02714422e-03, -9.64196399e-03,
       -1.20877391e-02, -3.09659149e-02, -1.37765589e-03, 1.91931743e-02,
       -1.14445519e-02, -5.47982194e-03, -1.39863528e-02, 1.26893632e-02,
       -6.56687655e-03, 3.07007995e-03, 1.09809572e-02, -1.31241940e-02,
       1.07961707e-02, -4.68440913e-03, -1.88540779e-02, -1.09200748e-02,
       -1.06911147e-02, -8.53966922e-03, 9.93468799e-03, -1.01219183e-02,
       9.44002625e-03, 1.18553834e-02, 5.49389701e-03, 1.46136200e-02,
       1.96222053e-03, 1.19376685e-02, -8.32389481e-03, 7.54891569e-03,
       -8.12729914e-03, -6.05620630e-03, -1.28165949e-02,
       -1.79502591e-02, -2.55037714e-02, -1.22303888e-02,
       -6.27708761e-03, 5.95218968e-04, 1.07772145e-02, 9.42579703e-04,
       -2.00932417e-02, 1.41806966e-02, 9.39010549e-03, 3.30268731e-03,
       -8.42615776e-03, 1.84395146e-02, -6.04915991e-03, -3.89110553e-03,
       -6.13075076e-03, -8.34655110e-03, -5.35895489e-03, 1.88745800e-02,
       -1.97988644e-04, 4.05461900e-03, 1.10762371e-02, 1.89250857e-02,
       -2.43736152e-03, -1.57431327e-02, -1.50303300e-02,
       -1.16296820e-02, 5.11025498e-03, 1.57332327e-02, -1.09907929e-02,
       3.61840765e-04, -1.66670345e-02, 2.44446215e-03, -2.27922257e-02,
       -1.21815773e-02, -7.32298708e-03, -3.95498182e-06, 7.86460470e-03,
       9.47739277e-03, -2.34763860e-03, 4.87225829e-03, -6.01613475e-03,
       -2.70740106e-03, 1.79378432e-03, -6.31982926e-03, 2.06942833e-03,
       1.93091463e-02, -8.73322540e-04, 2.11205445e-02, 1.38758859e-02,
       4.70574619e-03, 7.76862679e-03, 3.87070095e-03, -1.28157148e-02,
       -4.08433960e-04, 7.78967608e-03, 2.50399718e-03, -7.94085488e-03,
       8.49632919e-03, 1.81324761e-02, -1.05878580e-02, -6.26743259e-03,
       -7.76199158e-04, 2.54599261e-03, 2.37721112e-02, 6.20589824e-03,
       6.49529742e-03, 4.85675596e-03, -9.78138484e-03, -1.57865025e-02,
       -1.21982237e-02, -3.52079934e-03, 9.29995067e-03, -2.02689134e-02,
       -5.12907095e-03, 2.78020045e-03, 2.82618054e-03, -1.47472825e-02,
       -1.24459881e-02, -1.34015335e-02, 3.94858071e-04, 7.69250188e-03,
       -7.76401488e-04, -2.02101632e-03, 9.81918443e-03, -2.21284125e-02,
       4.83107724e-04, 3.54046933e-03, -1.01447701e-02, 1.19710574e-02,
       -9.83172376e-03, 9.02406685e-03, 1.04350029e-02, 5.61252749e-03,
       -1.03022626e-06, 5.68328332e-03, 1.00733107e-03, -1.54671411e-03,
       1.38905654e-02, -6.40202500e-03, 4.36388329e-03, -4.95346216e-03,
       3.22949444e-03, 8.07842240e-03, 3.79204331e-03, -1.22026941e-02,
       3.94879282e-03, 1.51751488e-02, -9.12786089e-03, -1.08560147e-02,
       -1.06006237e-02, -5.62092150e-03, -4.56932792e-03, 1.06578199e-02,
       1.39530776e-02, -1.07747307e-02, 2.47497484e-02, -1.25663439e-02,
       6.22219639e-03, 5.85071510e-03, 3.37087340e-03, -9.73196886e-03,
       1.67776477e-02, 6.62433857e-04, 6.98016072e-03, 1.77333374e-02,
       9.44750570e-03, 1.16749119e-03, -6.70989184e-03, 4.28493787e-03,
       -7.16958009e-03, -4.10376256e-03, 6.79718377e-03, -9.15224664e-03,
       6.60976954e-03, -1.65083501e-02, 4.03223280e-03, 7.28815654e-03,
       -3.06056952e-03, -6.19662739e-03, 2.60079782e-02, 9.45317734e-05,
       -1.18580915e-03, 3.59031814e-03, -1.29291490e-02, -1.03344787e-02,
       -7.50633888e-03, 6.21002866e-04, 6.85411831e-03, 6.21252973e-03,
       9.99865122e-03, -1.05694672e-02, 2.24268716e-02, 2.10120270e-04,
       -2.04366841e-03, -2.52155168e-03, 8.14068131e-03, -1.88677711e-03,
       1.50555209e-03, -1.21632954e-02, 5.27914567e-03, 1.15363356e-02,
       -1.60689354e-02, -2.28712503e-02, -2.69017043e-03, 6.81367354e-04,
       4.96678334e-03, 1.50841530e-02, -1.22424560e-02, -6.68092771e-03,
       9.14857723e-04, -2.20736284e-02, -1.59535836e-02, 1.21082915e-02,
       -2.21504085e-03, -8.57346971e-03, 1.84325799e-02, 1.53210468e-03,
       -8.27861950e-03, 5.42276585e-03, -2.86178961e-02, -1.68882739e-02,
       -1.96215026e-02, -1.51813664e-02, -1.52423438e-02, 1.21019315e-02,
       1.08074090e-02, 5.21188776e-04, 2.02792399e-02, -7.27444189e-03,
       -1.24116438e-02, -2.03753226e-02, 1.64256175e-03, -1.90219190e-02,
       -7.15857837e-03, -9.88869090e-03, 1.08587863e-02, 1.30324438e-02,
       7.70415459e-03, -5.94081590e-03, -2.75398679e-02, -2.66701891e-03,
       -3.37450486e-03, 9.10135359e-03, 6.43886300e-03, -1.46452058e-02,
       1.08073941e-02, -1.99653450e-02, -8.50647595e-03, -1.80099867e-02,
       -1.55000575e-02, 6.84459112e-04, 2.48768516e-02, -1.61595759e-04,
       3.70408525e-03, -2.27938639e-04, -7.04874471e-03, -1.78042927e-03,
       3.42969154e-03, -1.36419234e-03, 6.54792693e-03, 2.39337571e-02,
       1.18942922e-02, -1.31893239e-03, 6.29470544e-03, 1.15142036e-02,
       2.12030355e-02, -9.61638335e-03, 1.04673151e-02, 4.36566211e-03,
       -3.02759116e-03, 2.04065200e-02, 6.70726737e-03, 3.35427304e-03,
       -4.15481674e-03, -7.28970673e-03, 7.83946738e-03, -6.00131229e-03,
       4.36349539e-03, 1.50781749e-02, 1.13471458e-02, 5.93808666e-03,
       1.73179023e-02, 6.98321825e-03, 1.75060518e-02, 1.07598230e-02,
       2.31911596e-02, -6.28440175e-03, -4.58207913e-03, 2.06440268e-03,
       6.60913112e-03, 2.55357362e-02, -8.31702419e-05, -1.51318545e-03,
       1.58878006e-02, -2.63388781e-03, -7.85940886e-03, 2.99143302e-03,
       1.73342053e-03, 1.08661195e-02, 1.79257318e-02, -7.21898628e-03,
       -1.54556416e-03, 3.86588685e-02, 2.78995559e-02, 6.20785868e-03,
       1.37982583e-02, -7.74016604e-04, 2.22808347e-04, -2.52668113e-02,
       -4.49362778e-05, -1.48152765e-02, 1.00254556e-02, -1.07901068e-02,
       -2.96324189e-03, -1.32069662e-02, -7.89696723e-03, 1.48411924e-02,
       -2.28024623e-03, -9.54236090e-03, 2.06357241e-02, 2.52857637e-02,
       7.10018305e-03, -7.28455046e-03, 2.00092550e-02, 1.96342468e-02,
       3.45375040e-03, -1.46612171e-02, -3.97515018e-03, -1.13900108e-02,
       1.17669301e-02, -3.32676433e-02, -3.96166090e-03, -2.47762743e-02,
       -7.38511141e-03, 1.35213574e-02, 1.11185538e-03, 1.31320553e-02,
       2.48910883e-03, -2.82943924e-03, 1.22197783e-02, 1.38178747e-02,
       8.96187685e-03, 5.47820842e-03, 1.26105612e-02, -1.68702230e-02,
       -7.68050365e-03, -1.04738516e-03, -2.83904783e-02,
       -2.61785905e-03, -6.71304250e-03, -1.43862620e-03,
       -4.42864466e-03, 1.15193112e-03, -6.88222237e-04, 1.70344207e-02,
       2.74242461e-02, 1.41511380e-03, 2.58115469e-03, -1.86919619e-03,
       -1.66942608e-02, -5.76436985e-03, 6.75154850e-03, 1.35393755e-03,
       -1.38658867e-03, 4.69167065e-03, -2.38309037e-02, 6.36139000e-03,
       -2.10880092e-03, -9.48905072e-04, 6.70905225e-03, 2.10966147e-03,
       3.77259566e-03, 1.31564904e-02, 5.61102619e-03, 1.64861488e-03,
       7.16540823e-03, 1.39510613e-02, -1.19277583e-02, 3.72299738e-03,
       1.33848237e-02, -9.47825902e-05, -7.90772308e-03, 4.36028698e-03,
       -9.70739126e-03, -5.09412633e-03, 1.57088542e-03, -3.88249895e-03,
       1.45928748e-02, -2.86673871e-03, -9.26290359e-03, -5.91423945e-04,
       9.12774261e-03, -8.18737783e-03, 2.58817319e-02, -5.50753111e-03,
       -3.16539290e-03, -1.82324722e-02, 1.57342236e-02, 1.00555159e-02,
       -3.00441198e-02, 1.03992801e-02, 3.12092807e-03, 1.68840692e-03,
       8.22070520e-03, 6.39520586e-04, 5.50650014e-03, -1.74958387e-03,
       -1.95399690e-02, -9.77464858e-03, -6.08256040e-03, 1.82839241e-02,
       2.19420828e-02, 2.73263846e-02, 1.42019782e-02, 1.20551810e-02,
       -1.05276937e-03, -1.46169132e-02, -9.78296250e-03,
       -2.36792583e-03, 6.68514660e-03, 2.65016966e-02, 3.82164083e-02,
       1.48672266e-02, 3.78358713e-03, -6.31589489e-03, -9.04011726e-03,
       -2.74427552e-02, -1.60709042e-02, 1.72180198e-02, -4.42107162e-03,
       4.53200098e-03, -1.14210909e-02, -1.08538764e-02, 1.51681632e-03,
       -8.14780127e-03, 4.45232959e-03, 1.61611922e-02, 1.17627233e-02,
       3.12244822e-03, 2.68116202e-02, 2.49193292e-02, 9.51520726e-03,
       2.83628628e-02, 7.83953536e-03, -4.42238059e-03, -1.28759351e-02,
       2.28529386e-02, -1.55846355e-03, 5.52304788e-03, 1.80104133e-02,
       1.84260216e-02, 2.39642188e-02, 3.21930498e-02, 1.97306592e-02,
       -2.43677944e-02, 4.01521428e-03, 3.05019226e-02, 1.53043512e-02,
       -1.43263629e-02, -6.27130456e-03, 1.58469714e-02, 1.28657863e-04,
       1.49908988e-02, -1.10216215e-02, 7.52553204e-03, -3.48198675e-02,
       -1.63618498e-03, 8.39606673e-03, 1.31047191e-02, 5.09734824e-03,
       -2.20721005e-03, 9.35507938e-03, -1.58665441e-02, 7.79567868e-04,
       1.85475312e-02, 4.05462878e-03, -1.22406138e-02, -2.47919909e-03,
       -7.61737954e-03, 2.37442777e-02, 2.24417709e-02, 1.49160447e-02,
       -1.33681381e-02, 2.99923774e-02, 4.96131144e-02, 1.49191562e-02,
       -2.88270656e-02, -1.04350867e-02, 9.97924898e-03, -6.76843524e-03,
       -3.06361518e-03, -2.49654055e-02, -2.49368157e-02, 8.67894664e-03,
       1.70962990e-03, 7.61329848e-03, -1.30237294e-02, -4.14346950e-03,
       -9.91995167e-03, -1.94396861e-02, 7.19172275e-03, 4.32427488e-02,
       4.67429385e-02, 2.09527910e-02, -8.69384129e-03, 1.07705069e-04,
       -1.68450072e-03, -2.78526526e-02, -1.39277130e-02,
       -2.80660167e-02, -1.39884427e-02, 1.63564775e-02, 2.19899043e-02,
       3.73916631e-03, -8.35940335e-03, 1.97449122e-02, 8.08504410e-04,
       8.82996060e-03, -1.35526136e-02, -4.89823986e-03, -1.15352441e-02,
       6.58943364e-03, 2.20141392e-02, 1.27234738e-02, 8.89359415e-03,
       -1.13653103e-02, 5.63193858e-03, -2.01745462e-02, -5.36588952e-03,
       -6.22187462e-03, -9.06795915e-03, -1.42017119e-02, 2.25894456e-03,
       9.67281347e-04, 1.71333551e-04, -3.71494819e-03, -1.55139770e-02,
       1.35029685e-02, 1.06064081e-02, 3.47008035e-02, 1.31916972e-02,
       1.11982636e-02, -9.14020743e-03, 9.50374524e-04, 7.66994839e-04,
       -1.47487186e-02, -2.11005611e-03, -1.20120058e-02, 1.98561791e-02,
       1.95760895e-02, -2.98887515e-03, 7.82558869e-04, -1.08453603e-02,
       4.96976264e-03, -1.10280449e-02, 3.51846474e-03, -1.20945135e-02,
       1.33001553e-02, 1.00153200e-02, -1.58573978e-03, -8.31864215e-03,
       -8.24183971e-03, 1.94330630e-03, -6.21783198e-04, 6.39338978e-03,
       -1.93840556e-03, 4.54044808e-03, -3.98388319e-03, 1.40075991e-02,
       2.32854113e-02, 1.70614123e-02, 3.22003779e-03, -1.01698115e-02,
       -2.19572452e-03, 1.00473659e-02, 3.21968570e-02, 4.25186753e-03,
       -2.07796157e-03, 1.37536721e-02, 7.36941956e-03, 1.06322207e-02,
       -2.31722835e-03, -2.24310297e-05, 6.78272871e-03, 2.63659135e-02,
       2.35896138e-03, 8.08897987e-03, 8.46697576e-03, 6.32860372e-03,
       1.24755669e-02, -9.18128900e-03, 1.45918615e-02, -2.37890594e-02,
       1.02437346e-03, 9.15855198e-05, 1.44578684e-02, -1.54042908e-04,
       -1.15645984e-02, -5.55278617e-04, -1.15986159e-02,
       -1.28324525e-02, -8.74337554e-03, 3.69012170e-03, 1.53199108e-02,
       -8.17906205e-03, 2.96709617e-03, 4.66249464e-03, 3.88253684e-04,
       8.74468999e-04, 2.93431971e-02, 3.58944206e-04, 2.45883018e-02,
       -3.53545439e-03, -8.10200255e-03, 7.06965011e-03, 1.10111460e-02,
       1.51974941e-03, -1.29809335e-03, -4.60767141e-03, -8.53908621e-03,
       2.19590422e-02, 1.56714432e-02, -9.78409220e-03, 4.10784269e-03,
       -1.31633328e-02, 2.28458829e-03, -1.64888874e-02, -1.37572428e-02,
       -5.49536804e-03, 1.88941285e-02, 2.48981882e-02, -1.21218469e-02,
       1.25045022e-02, -1.49848936e-02, -9.28868819e-03, 4.82338946e-04,
       -2.11952589e-02, -1.21446811e-02, -5.78761846e-03,
       -1.56790633e-02, 1.36338994e-02, 5.96511504e-03, -6.87165651e-03,
       1.17383897e-02, 2.31907461e-02, -2.12860410e-03, 1.41732842e-02,
       8.95624142e-03, 2.68588141e-02, 3.29451524e-02, -1.64649053e-03,
       -1.44272773e-02, -1.67523976e-03, 9.57932975e-03, -3.73104960e-03,
       -3.82011826e-03, -6.02377718e-03, 9.92673729e-03, 5.40382601e-03,
       2.96066180e-02, -7.51058944e-03, 1.32962782e-02, -1.82975009e-02,
       -8.79258849e-03, -1.01283267e-02, 4.80990717e-03, -1.03223901e-02,
       6.12509018e-03, 2.08901837e-02, -1.52970897e-02, -9.13170399e-04,
       3.48009192e-03, -8.22436810e-03, -7.37717282e-03, -8.90823361e-03,
       -8.19924008e-03, 3.41954418e-02, 2.39115153e-02, -2.97581614e-03,
       4.50006546e-03, -2.21090252e-03, 9.73772351e-03, -7.69150443e-03,
       -2.09735497e-03, 6.77850423e-03, 2.19643842e-02, 9.62977530e-04,
       1.13014700e-02, -2.25866155e-04, 5.78277325e-03, 1.31873460e-02,
       -1.06772305e-02, 6.34513143e-03, 2.53345724e-02, -3.64790321e-04,
       2.34166440e-02, -1.47769637e-02, 1.69988174e-03, 8.28985125e-04,
       -5.26007218e-03, -4.05224878e-03, 1.01421773e-02, 1.42283952e-02,
       2.02643890e-02, 2.91127339e-03, -1.64508317e-02, -1.07517687e-03,
       -1.33200614e-02, -1.28704635e-02, 3.36973905e-03, 1.53250089e-02,
       2.09902190e-02, 2.07633013e-03, -2.59595487e-04, -5.08690672e-03,
       6.64278818e-03, -1.35407234e-02, 8.83267168e-03, -9.47091542e-03,
       -2.65706773e-03, -8.79378204e-05, 2.03776285e-02, -1.22658489e-03,
       -8.81388225e-03, -2.59323022e-03, -9.71736386e-03,
       -3.58246686e-03, -1.13654574e-02, 1.06940866e-02, 1.49511974e-02,
       -5.02866600e-03, 4.10963316e-03, 7.70377647e-03, 1.17985811e-02,
       1.49469101e-03, -1.95115421e-03, -3.30403424e-03, 3.41710001e-02,
       5.22383768e-03, 8.32949765e-03, 2.06590653e-03, -4.13131947e-03,
       -2.79493025e-03, -1.45359002e-02, 2.25696224e-03, -4.03058669e-03,
       1.00203892e-02, 5.47967572e-03, -8.68800562e-03, 4.93107596e-03,
       -1.27257090e-02, 5.78826945e-03, 9.91844293e-03, -9.23311990e-03,
       -1.06704859e-02, 2.24125236e-02, -7.23221153e-03, -5.98430401e-03,
       -1.66950040e-02, -5.39390277e-03, -8.44195206e-03, 1.53771974e-02,
       -7.42208271e-04, -1.67181082e-02, 2.00507939e-02, 3.76701774e-03,
       1.43484510e-02, 2.57556569e-02, -1.25122806e-02, 4.48397920e-03,
       -4.92550386e-03, -3.49991117e-03, -4.05610958e-03,
       -6.40916813e-04, 1.24039249e-02, 5.29085193e-03, 1.20792547e-02,
       -1.63854640e-02, -3.68627138e-03, 1.23199597e-02, -1.00282347e-02,
       3.62908235e-03, 1.04524018e-02, 7.58091686e-03, 1.15669402e-03,
       5.20773837e-03, -5.19125303e-03, 4.23018914e-03, -9.77291632e-03,
       -2.66431738e-03, 4.61134640e-03, 1.82695929e-02, -2.67379498e-03,
       -1.43101411e-02, -1.06320279e-02, -5.87866595e-03, 5.69247268e-03,
       -1.60500146e-02, -2.29204260e-02, 4.18980559e-03, -1.49724111e-02,
       7.02735176e-03, -1.10041536e-02, 1.36158802e-02, 4.95132874e-04,
       2.22646981e-03, 2.50851288e-02, 4.13086638e-02, 1.77314878e-02,
       2.67980061e-02, 3.98323452e-03, -7.24337110e-03, 2.37647463e-02,
       -2.07493012e-03, 2.26727850e-03, 1.37562277e-02, 1.35074928e-02,
       2.45195180e-02, 6.89578801e-03, 1.05313277e-02, -1.89575087e-03,
       -3.64332646e-03, -1.76600851e-02, 3.15308198e-03, -1.18842337e-03,
       -8.15771241e-03, 7.00714299e-03, 1.50049059e-02, 6.40938152e-03,
       -6.28772657e-03, 5.69783524e-03, -4.82009770e-03, -2.19623297e-02,
       2.98363692e-03, -1.46437949e-02, -1.42510217e-02, -2.15453934e-02,
       5.36324410e-03, 4.48995875e-03, 1.52697666e-02, 6.75616786e-03,
       3.00566405e-02, 1.82376783e-02, 2.16562599e-02, 2.40504034e-02,
       2.50425823e-02, 2.00593192e-02, -3.41962813e-03, -1.11500910e-02,
       -2.80998042e-03, 1.46348048e-02, 1.00490339e-02, -7.54960813e-03,
       -7.85207655e-03, -1.53405508e-02, -1.48116276e-02, 1.04090860e-02,
       1.21212872e-02, 7.86862709e-03, 3.76826599e-02, 1.48142828e-02,
       3.68417762e-02, 9.19312797e-03, 9.11994278e-03, 7.27838371e-03,
       -1.55475391e-02, -7.12742517e-03, 1.88398198e-03, -2.30846019e-03,
       -1.22109363e-02, -1.52893988e-02, 1.90629147e-03, -1.50649520e-02,
       -8.37794412e-03, -1.69330009e-03, 6.05790301e-05, 3.12924176e-03,
       1.34645738e-02, -2.57000187e-03, 3.18286126e-03, -7.86395743e-04,
       -8.95994250e-04, -8.56663508e-04, 4.39765630e-04, -1.68259237e-02,
       -1.73730254e-02, 8.17597611e-04, -9.96435527e-03, 7.50050182e-03,
       1.12173157e-02, -1.76726729e-02, 1.98765043e-02, -2.54990626e-03,
       1.45657174e-02, -5.63815050e-03, 2.25044079e-02, -2.98120594e-03,
       1.49717135e-02, 1.73240434e-02, 1.56756472e-02, 1.04346294e-02,
       -7.01052137e-03, -2.89727258e-03, -2.72258907e-03, 1.64423492e-02,
       -7.96382874e-03, 7.78568769e-03, 4.14163666e-03, -1.12510137e-02,
       -4.72421758e-03, 1.33109894e-02, -1.81751810e-02, -1.04266675e-02,
       -7.11396802e-04, -1.35249002e-02, -1.29604265e-02, 4.70769871e-03,
       -2.28647189e-03, 1.64666325e-02, 2.31420132e-03, 3.59066622e-03,
       3.30911973e-03, -1.10725162e-03, -1.75743699e-02, -1.12343235e-02,
       -6.09464198e-03, 4.59527131e-03, 1.36840083e-02, -2.05123145e-03,
       -2.66633797e-02, -6.39853114e-03, 1.32990805e-02, -3.01004830e-03,
       -2.58789142e-03, 3.31388297e-03, 1.38009237e-02, 1.97506584e-02,
       -5.65455947e-03, 3.96636315e-03, 1.70759410e-02, 1.08247222e-02,
       -1.09313494e-02, 1.28769986e-02, 1.07694939e-02, 1.26085244e-02,
       7.81366695e-03, -2.00139685e-03, 3.95610929e-03, -3.16302152e-03,
       1.88327432e-02, 2.23455089e-03, -7.19720405e-03, 1.78836733e-02,
       7.90472236e-03, 1.57395098e-02, 2.53212592e-03, -7.31449388e-03,
       1.84602686e-04, 5.51284105e-03, -7.36859208e-03, -5.75611787e-03,
       2.15068962e-02, 5.66614745e-03, 1.77766755e-02, 2.77400594e-02,
       -4.44017258e-03, 6.20162580e-04, 2.21694494e-03, -1.57692041e-02,
       1.07173598e-03, -9.15621314e-03, -1.69298314e-02, 1.40450504e-02,
       -1.52344280e-03, -9.59673617e-03, 6.34690840e-03, 4.97575197e-03,
       -6.32178038e-03, -1.04342569e-02, -2.51272898e-02,
       -1.83020514e-02, 5.20778541e-03, -6.84278272e-03, 1.47246569e-03,
       -8.09348770e-04, 6.10710960e-03, 3.63208316e-02, 2.23746500e-03,
       -1.21289911e-03, -7.39078689e-03, 3.58289620e-03, -1.61320698e-02,
       -9.12787672e-03, -1.44237734e-03, -9.86388046e-03, 5.45066968e-03,
       -3.96611448e-03, 1.33729372e-02, -3.15815695e-02, -2.55181100e-02,
       -5.33483271e-03, -8.41575395e-03, 7.66568258e-03, 8.46512150e-03,
       2.04197969e-02, 2.64914380e-03, -4.27792780e-03, -1.23879910e-02,
       -1.93906873e-02, 1.61926746e-02, 4.32199752e-03, 1.33988690e-02,
       9.57123004e-03, -1.87531265e-03, -1.02417208e-02, -7.58312689e-03,
       3.58295371e-03, -1.08386520e-02, 3.13297869e-03, 4.80075309e-04,
       -6.06640102e-03, -1.35946774e-03, 7.12436764e-03, 1.00117242e-02,
       9.66140255e-03, -3.46200704e-03, -3.08271335e-03, -4.08489024e-03,
       -2.60926993e-03, -1.16323140e-02, 1.40867988e-02, 6.47871196e-03,
       4.55188674e-05, -5.58542414e-03, 3.68032744e-03, -1.43747684e-03,
       1.06076039e-02, -4.89883311e-03, 5.04401978e-03, -1.39546976e-03,
       6.14426471e-03, -1.90133862e-02, 4.14499454e-03, 1.32092256e-02,
       -2.92483345e-03, -2.77173356e-03, -1.31087508e-02,
       -1.02385357e-02, 9.75160729e-05, -1.33352028e-02, -5.85883996e-03,
       -2.76883389e-03, 2.87363841e-03, -9.96198738e-04, 7.24901212e-03,
       1.22914584e-02, -5.73817035e-03, 1.91583987e-02, 8.21926445e-03,
       -2.21768263e-04, -1.58311371e-02, 9.76269972e-03, 2.42199320e-02,
       -2.02631541e-02, -5.65002300e-03, 4.55574685e-04, -1.83254164e-02,
       -9.21351090e-03, -3.94286355e-03, -1.07084690e-02, 1.26084387e-02,
       2.13221298e-03, 9.38332081e-03, 8.73794314e-03, 6.79001212e-03,
       -4.54371283e-03, -3.79370322e-04, -6.35016803e-03, 6.09598914e-03,
       7.59974355e-04, 2.12877914e-02, -1.37819238e-02, 1.03648361e-02,
       1.18260796e-03, -8.63020495e-03, 1.87665201e-03, 4.60627256e-03,
       1.32249389e-02, 1.04112085e-02, -1.65549607e-03, -5.21614961e-03,
       1.93690155e-02, 1.19238338e-02, 3.78615200e-03, 1.14489216e-02,
       6.05944823e-03, 6.84992701e-04, 2.56682392e-02, -1.50203519e-03,
       -6.88645290e-03, 1.21090254e-02, 6.48754369e-03, -1.18162427e-02,
       -5.49153239e-03, -3.00851185e-03, -7.92506896e-03,
       -1.41764795e-02, 1.82895805e-03, -2.64567533e-03, 1.24614676e-02,
       -1.16134482e-02, -2.87378370e-03, 5.43527910e-03, 3.74205643e-03,
       -1.02026034e-02, 1.81073863e-02, 7.97033135e-04, 7.03129824e-03,
       1.35798045e-02, -6.92676473e-03, -1.77930072e-02, 1.98069867e-03,
       -4.25033085e-03, -2.49667745e-03, -1.47177298e-02, 6.88977307e-03,
       -9.02509224e-03, 1.48498043e-02, 9.78506543e-03, -7.59538438e-04,
       6.99412869e-03, 1.06728561e-02, -1.17361099e-02, 5.60650183e-03,
       1.10073620e-02, -6.24281075e-03, 3.64345661e-03, -7.03095179e-03,
       -1.39843896e-02, -1.13063985e-02, -1.56271830e-02,
       -1.01922965e-02, 3.97469802e-03, 1.15775829e-03, 1.21286875e-02,
       1.58274211e-02, -3.55041338e-05, 4.08743322e-03, 1.41551020e-02,
       -1.19119801e-03, 6.48005167e-03, 1.75241847e-02, 1.01580098e-02,
       2.35133581e-02, -2.16548680e-03, 4.21542721e-03, -4.46573133e-03,
       4.37572086e-03, -1.81180090e-02, 2.38835011e-02, 4.02277289e-03,
       5.78405103e-03, -8.08706973e-03, 1.71340145e-02, 1.06644835e-02,
       1.71831157e-02, -5.59925847e-03, 9.78653878e-03, -1.12004833e-04,
       1.75631279e-03, 1.97245274e-02, -2.77813547e-03, 1.90221274e-03,
       8.50387197e-03, 1.46305766e-02, -1.71195448e-03, 1.37012294e-02,
       -2.32684854e-02, -5.47622796e-03, 2.67260079e-03, 2.42452193e-02,
       -2.47320272e-02, -1.19795492e-02, -4.12849663e-03,
       -8.60306714e-03, 3.11976648e-03, 1.33036887e-02, 2.99000624e-03,
       -8.64584185e-03, -7.02386769e-03, 4.76806751e-03, 1.84985753e-02,
       -8.84177536e-03, 7.71358842e-03, -5.40580088e-03, -4.95047588e-03,
       1.23980315e-02, 5.36319567e-03, -6.13750285e-03, 1.18895806e-02,
       7.19240680e-03, 3.07253245e-02, 1.71978101e-02, 1.05784200e-02,
       -1.40645765e-02, 6.18069898e-03, -1.07669458e-02, -9.34492983e-03,
       -1.06618302e-02, 7.45196221e-03, 4.20121429e-03, 4.27190913e-03,
       1.32139185e-02, 1.85550540e-03, 2.45824875e-03, 3.82750831e-03,
       2.03265790e-02, 1.48524903e-02, -6.51881937e-03, -5.59517276e-03,
       1.01709589e-02, -2.23563369e-02, 6.44022180e-03, 1.53454849e-02,
       -2.28014798e-03, 4.72307811e-03, -3.29955271e-03, -1.92776248e-02,
       4.72502841e-04, 1.05683776e-02, -5.08341240e-03, -6.38192054e-03,
       1.57446973e-02, 9.65996273e-03, -1.03142262e-02, 7.64116645e-03,
       6.78682048e-03, 2.06681360e-02, -9.21717193e-03, 3.31640895e-03,
       -5.68592409e-03, 2.53028143e-02, 1.35275582e-02, 1.15125459e-02,
       -1.39733031e-02, -1.94819961e-02, -3.99700738e-03, 8.75282381e-03,
       1.01994267e-02, 5.30488417e-03, 1.94123425e-02, 1.16405385e-02,
       -1.18472045e-02, 5.35334926e-04, -1.80661352e-03, -4.41004639e-04,
       -1.60793401e-02, 5.64272655e-03, -1.43951736e-02, -5.31712035e-03,
       -1.13167400e-02, -1.73963956e-03, -7.33287539e-03, 1.12656504e-02,
       -1.78449415e-02, -2.41355272e-03, 2.65773921e-03, -2.83993315e-03,
       -9.28235892e-03, -4.86812973e-03, 1.47370351e-02, 8.06937460e-03,
       5.88704599e-03, 1.96351148e-02, 1.80451367e-02, 4.55698324e-03,
       -2.99835298e-03, -9.72979702e-03, 3.58699984e-03, -3.77201883e-04,
       -1.89491510e-02, 1.47139691e-02, 1.29359644e-02, 1.44561389e-02,
       2.02846969e-03, -1.24479020e-02, 3.98182031e-03, -2.06140778e-03,
       -4.70184442e-03, -8.16645008e-03, -3.76690505e-03, 7.12090405e-03,
       2.44630016e-02, -7.68368691e-03, 7.87789933e-03, 1.30665570e-03,
       -1.31635163e-02, -5.62851550e-03, 2.36856821e-03, 2.52000359e-03,
       -1.20532066e-02, 2.05723885e-02, 8.87316279e-03, -1.65012702e-02,
       -9.40032676e-03, -9.35964379e-03, -1.41534163e-02, 2.51112995e-03,
       -5.10769384e-03, 1.51967285e-02, 1.57751294e-03, 8.04884301e-04,
       -6.39574369e-03, 1.22035118e-02, 1.78984571e-02, -3.90546932e-03,
       7.47607416e-03, 1.06640672e-03, 1.59200337e-02, 2.22045314e-02,
       -4.52084234e-03, 1.88936398e-03, -2.59812083e-03, 1.46890180e-02,
       -5.30447299e-03, -2.76248530e-03, -2.99389893e-03,
       -1.07032983e-02, 2.27501732e-03, 1.35607494e-04, 3.54826986e-03,
       -3.35475383e-03, 1.87115595e-02, 2.70451675e-03, 3.06151737e-03,
       -2.27635354e-03, -8.39288626e-03, -4.50554246e-04,
       -5.07489173e-03, -8.90385883e-04, -4.25221445e-03,
       -8.68403260e-03, 1.55798486e-02, 2.59799999e-03, 7.16977241e-03,
       2.56709754e-02, 1.95808578e-02, 1.46877421e-02, 1.69385877e-02,
       5.74196875e-03, 1.84605718e-02, 9.68576968e-03, 2.30109342e-03,
       3.67769413e-03, 1.41571404e-03, 1.07011083e-03, 1.10586472e-02,
       1.36084389e-02, 1.05734589e-02, 1.13713201e-02, 6.53395290e-03,
       1.28942225e-02, -5.28375758e-03, 9.53960139e-03, -5.86714968e-03,
       -1.54935904e-02, 4.08894056e-03, 4.93701920e-03, -8.20584688e-03,
       -1.49478782e-02, 9.09314476e-05, -6.02196157e-03, 3.21298069e-03,
       1.12508126e-02, 7.05866423e-03, -2.15962455e-02, -2.14895606e-03,
       -8.98773782e-03, 1.77108161e-02, -1.23270852e-02, 6.18342310e-03,
       -4.98469081e-03, -3.12986108e-03, 1.82099342e-02, 5.66605292e-03,
       6.61169132e-03, 2.47542048e-03, -5.80862677e-03, -2.24861433e-03,
       -2.93285493e-03, -3.23223323e-03, 3.56074516e-03, -9.04232822e-03,
       -1.28021685e-03, -1.50002073e-02, -1.31820794e-02, 2.60913814e-03,
       -1.37560899e-04, -3.35622951e-03, -3.12456582e-03,
       -4.62942233e-04, -1.32527004e-03, -2.86834221e-03,
       -6.52219914e-03, 1.20222336e-03, 1.08782751e-02, -9.63194482e-03,
       -2.86086351e-02, -1.22820213e-02, -3.21231736e-03, 4.87360172e-04,
       5.69124147e-03, 2.40600388e-03, 3.79597442e-03, 1.66184921e-02,
       2.76924167e-02, -6.69925124e-04, 7.98763614e-03, -1.91949736e-02,
       -5.28106280e-03, -2.00780435e-03, 1.00758085e-02, 1.27097499e-02,
       9.75705334e-04, 3.27404909e-04, 1.27336551e-02, 6.04886701e-03,
       -1.53948693e-02, 1.27129611e-02, -1.10481260e-02, -2.39055641e-02,
       -1.14978729e-02, -7.23649003e-03, -4.58043534e-04,
       -1.06408037e-02, 1.68692321e-02, -1.11610945e-02, 1.70398746e-02,
       -3.48942180e-04, 9.88242216e-03, -8.37120786e-03, 1.53659552e-03,
       -1.02233691e-02, -8.61518830e-03, -1.64897852e-02, 1.12779019e-03,
       1.53493518e-02, -5.08272834e-03, -1.15834847e-02, 1.64840440e-03,
       8.04644078e-03, -2.79696449e-03, -6.75057201e-03, 1.16794754e-05,
       7.45061412e-03, 1.80585720e-02, -9.55896359e-03, 1.72657648e-03,
       2.05939859e-02, -1.09817488e-02, -1.74697593e-03, 2.94572976e-03,
       -1.46755995e-02, 1.20022548e-02, 1.05140144e-02, -4.13222704e-03,
       -3.76339024e-03, 5.69457049e-03, 1.77644454e-02, 9.56536084e-03,
       -9.17322747e-03, -1.71097077e-03, 2.18990874e-02, 2.28444096e-02,
       -1.41090862e-02, 3.85995675e-03, 1.28984861e-02, -2.50647706e-03,
       -6.90925214e-03, 7.27305096e-03, 1.36106992e-02, 1.17820902e-02,
       -5.80918323e-03, -9.45743173e-04, -6.25350885e-03, 1.12733133e-02,
       1.16971545e-02, 6.75813295e-04, 9.24291648e-03, -9.00930725e-03,
       9.67262685e-03, 9.45100095e-04, 1.02836853e-02, -6.88793045e-03,
       7.33207539e-03, 1.11319020e-03, 7.92521983e-03, 9.00352781e-04,
       -1.00378525e-02, 5.75451553e-03, 4.77472367e-03, -2.49213679e-03,
       -2.77087581e-03, 1.82357933e-02, 9.83628817e-03, 1.26303744e-03,
       1.15690231e-02, 1.04221767e-02, 2.49167532e-02, 3.80448881e-03,
       7.91187026e-03, -1.95628274e-02, 1.46561991e-02, -3.64872423e-04,
       1.18023567e-02, 6.67425431e-03, -1.15762213e-02, 1.30376667e-02,
       2.32818946e-02, 4.08642832e-03, -7.98972044e-03, 1.28976768e-02,
       5.64307149e-04, 2.92149256e-03, -4.24106838e-03, 7.35462597e-03,
       2.99708312e-03, 2.69251666e-03, 4.08624811e-03, 2.66013230e-04,
       -1.23179518e-03, 3.85530153e-03, 6.82920311e-03, 1.57846920e-02,
       -3.45301372e-03, 1.83715001e-02, -2.39873858e-04, 7.20055122e-03,
       5.95376652e-04, 7.28863711e-03, 8.58177058e-03, -4.05034237e-03,
       -1.85982941e-03, 8.22390895e-03, -3.81180784e-03, 1.09745190e-02,
       -9.01892316e-03, -1.15171438e-02, -2.88738665e-04, 1.89245772e-02,
       3.70561681e-03, 1.47169307e-02, -4.76039422e-04, 1.29817156e-02,
       -1.74393260e-03, 1.10893240e-02, 6.43385947e-03, 1.33687640e-02,
       3.47583671e-03, 1.06063439e-02, 1.51614044e-02, -5.39221708e-03,
       1.35743115e-02, 8.97686835e-03, 7.32850609e-03, 1.05240615e-02,
       1.98260532e-03, -1.33438490e-03, -2.84498511e-03, -2.11002189e-03,
       -7.88058247e-03, -6.89498940e-03, 2.40406301e-03, 7.91440811e-03,
       -7.52764475e-03, -9.00765602e-03, 4.07616096e-03, 6.32725144e-03,
       5.95705770e-03, 1.69469304e-02, 1.31509602e-02, -5.01892949e-03,
       2.62340275e-03, 1.47149488e-02, -6.21453207e-03, 1.87763979e-03,
       3.97266075e-03, -3.64986621e-03, 3.24805221e-03, 9.05822217e-03,
       9.51557327e-03, 6.57511177e-03, -1.00085959e-02, -5.89898368e-03,
       -1.07668944e-04, 1.77051015e-02, 1.19563220e-02, 1.05805639e-02,
       4.10857936e-03, 2.86094751e-03, -1.38654106e-03, 5.37050376e-03,
       1.13715076e-04, -1.06047804e-03, -1.32582011e-02, -1.20973140e-02,
       -9.56666376e-03, -2.89096939e-03, -3.76837794e-03, 5.81116043e-03,
       2.92360294e-03, -2.54662777e-03, 4.60351817e-03, 1.35196522e-02,
       -3.54324840e-03, -4.22569690e-03, -5.32875583e-03,
       -2.53792596e-03, -8.91171303e-03, 7.12953787e-03, -4.91517549e-03,
       -9.37997922e-03, -1.56251434e-02, -1.30602829e-02,
       -1.54343490e-02, 7.39335921e-03, -6.85246894e-03, -5.27974777e-03,
       1.51598779e-02, -1.52630582e-02, -1.79404039e-02, 1.10072177e-02,
       -1.71378665e-02, 1.15546891e-02, 2.12531518e-02, 1.69634297e-02,
       -1.37421796e-02, 4.66725882e-03, 9.24934167e-03, -1.12033021e-02,
       -7.36388518e-03, -1.64134968e-02, 1.65791065e-02, -6.25042338e-03,
       9.05991939e-04, -1.23982197e-02, 9.57470760e-03, 1.92560488e-03,
       -9.77604929e-03, 4.65672975e-03, -2.82598427e-04, -7.18432944e-03,
       3.51346768e-02, 1.41083440e-02, -2.20748652e-02, 9.37126484e-03,
       -1.23303160e-02, -8.25158227e-03, -6.26083463e-03,
       -1.17752682e-02, -9.07655153e-03, -6.89947465e-03,
       -9.45036486e-03, -1.50261195e-02, 6.39670761e-03, -9.38125246e-04,
       4.69211140e-04, 8.45176261e-03, 6.12070411e-03, 1.37831038e-02,
       1.25750601e-02, 1.63066704e-02, -1.06037175e-02, 8.47418886e-03,
       1.64107401e-02, 2.90270848e-03, -4.40805889e-04, -9.42093902e-04,
       -3.43339611e-03, -1.19153492e-03, -1.11016389e-02,
       -3.21123772e-03, 1.14210891e-02, -1.13211200e-02, 6.11430965e-04,
       1.15608107e-02, -3.39730131e-03, -1.78986397e-02, 6.09495677e-04,
       4.76575457e-03, -3.30902310e-03, 4.49052965e-03, -3.61337722e-03,
       -1.17912861e-02, 8.10375065e-03, -1.40816569e-02, -1.82289463e-02,
       -4.49043419e-03, -5.24365809e-03, 2.57375836e-03, 1.58184627e-03,
       2.70406227e-03, 1.34319831e-02, -8.44794791e-03, 4.16850764e-03,
       1.49944508e-02, -3.27214133e-03, 1.23856422e-02, 1.66872516e-02,
       1.78172588e-02, 5.79537963e-03, -3.71296168e-03, -1.08291432e-02,
       7.61013478e-03, -1.95291061e-02, -1.03559550e-02, 1.28506869e-03,
       -4.08963206e-05, -2.87724216e-03, -2.16052029e-02, 9.54054296e-03,
       1.49602359e-02, -1.29332859e-02, 6.93564583e-03, -2.13531847e-03,
       -8.09821580e-03, -3.84219782e-03, 6.94005936e-03, 8.76312330e-03,
       1.08320394e-03, 1.37186721e-02, -7.89305288e-03, -7.93832634e-03,
       1.16237774e-02, -1.31923808e-02, -1.19767645e-02, -3.75996722e-04,
       1.44585604e-02, -4.35505004e-04, 1.10319285e-02, 1.03157631e-03,
       -4.11007972e-03, -1.07767945e-02, 6.03559893e-03, 1.65961646e-02,
       -9.38932784e-03, -2.04477459e-02, -1.64329372e-02,
       -5.39640430e-04, -5.59907453e-03, -5.69145614e-03, 1.22511610e-02,
       6.40287763e-03, -9.42578819e-03, -4.92386566e-03, -6.64502988e-03,
       5.94941573e-03, 1.62321725e-03, -1.27932811e-02, -8.22334550e-03,
       1.10599017e-02, 2.06342041e-02, 6.89642271e-03, -7.69610656e-03,
       -2.24872045e-02, -4.74783173e-03, -1.29674235e-03, 3.86996963e-03,
       5.45171672e-04, -5.45112183e-03, 5.34679927e-03, -9.25326534e-03,
       -8.14318098e-03, -6.78746495e-03, -6.98880898e-03, 1.33428667e-02,
       8.67586955e-03, 1.41185150e-02, -2.24433802e-02, 2.19650734e-02,
       -6.27076579e-03, 1.00876745e-02, 1.19762300e-02, 4.97188233e-03,
       -1.96956191e-03, 8.85259639e-03, 3.99993826e-03, -1.61947124e-03,
       1.96486712e-02, 2.15157936e-03, -4.35151951e-03, -1.10933967e-02,
       8.92738812e-03, -7.95159955e-03, -2.60562934e-02, -5.94388507e-03,
       -1.05750691e-02, -3.57925962e-03, -2.19291411e-02,
       -1.11181231e-03, -8.10214318e-03, 1.91780515e-02, 2.64417124e-03,
       -8.60223174e-03, -7.01769721e-03, 2.27694828e-02, -1.12759983e-02,
       -1.06284497e-02, -2.95693148e-03, 1.08429976e-02, 3.88811668e-03,
       5.80457086e-03, -3.79650667e-03, -4.60687652e-03, -1.46997636e-02,
       1.23821562e-02, 1.99461356e-02, 8.67182680e-04, -3.44976829e-03,
       -8.47761892e-03, 4.89418721e-03, -8.26250005e-04, 3.89159046e-04,
       3.30345985e-03, 8.26186687e-03, 1.14238160e-02, 1.47148157e-02,
       -1.76293508e-03, -1.97602925e-03, 6.53885212e-03, -4.26867325e-03,
       -1.90142319e-02, 1.45914964e-02, 8.46814737e-03, -3.15745507e-04,
       -5.26517909e-03, 4.64115199e-03, -1.30950958e-02, -3.38314986e-03,
       1.19467638e-02, -3.22609697e-03, -1.66003928e-02, -4.60716989e-03,
       -2.00222880e-02, -2.01492794e-02, -9.65362415e-03, 6.72782864e-03,
       6.55025337e-03, -4.97911917e-03, 1.52591746e-02, 1.61746368e-02,
       1.16899861e-02, 2.25298479e-03, 4.77097835e-03, 1.94640830e-02,
       -9.03304666e-03, -4.86654416e-03, -1.14713619e-02, 6.42417092e-03,
       3.66183021e-03, 1.44968147e-03, 4.66264971e-03, -1.61780193e-02,
       -4.11307905e-03, -9.27952642e-04, 8.94079451e-03, 4.05325834e-03,
       1.38395587e-02, 3.12973815e-03, 8.07215227e-04, 9.36860405e-03,
       -4.80795046e-03, 1.02781062e-03, -1.17748072e-02, -1.86614424e-03,
       -1.06886700e-02, -7.20323110e-03, 5.86282404e-04, -9.08744056e-03,
       2.03013164e-03, -4.31817304e-03, -1.57606620e-02, 6.03527715e-03,
       1.39784871e-03, -6.49008609e-04, 1.55743062e-02, -8.16588942e-03,
       6.74949354e-03, 1.17842294e-02, 4.23056493e-03, 3.40236758e-04,
       -4.97521507e-03, 7.39819510e-03, 1.59853660e-02, 1.30785182e-02,
       1.47992391e-02, -1.41724460e-02, 8.50257115e-04, 3.57440254e-03,
       -5.75865014e-03, 1.14691798e-02, -1.13152629e-02, 7.25167478e-03,
       1.60810333e-02, -5.90578886e-04, 7.32155237e-03, 1.63731650e-02,
       -2.45488039e-03, -5.02107712e-03, -1.06704999e-02, 4.51876922e-03,
       -5.29634347e-03, -1.08556757e-02, 7.64202187e-03, -1.48919029e-02,
       1.05542056e-02, -4.24546795e-03, -1.17463041e-02, -6.31328719e-03,
       1.54506052e-02, 1.20413012e-03, 1.63238044e-04, 1.09368619e-02,
       -4.54955129e-03, -1.61757681e-03, 2.20610593e-02, -1.11514423e-02,
       -1.10724168e-02, -1.58989262e-02, -1.13121262e-02,
       -3.26903712e-04, 1.50937149e-02, 4.73274058e-03, 1.02408100e-02,
       -1.00817755e-02, -1.26864146e-02, -1.33101530e-02, 2.17308532e-02,
       -4.05844813e-03, 2.29792856e-03, 8.80511478e-03, 6.86844485e-03,
       1.09174717e-02, 2.13743243e-02, -1.38208978e-02, -2.53869537e-02,
       3.13714799e-03, -3.22461524e-03, -9.79356933e-04, 4.51103132e-03,
       -6.62934035e-03, -5.03114006e-03, 4.13383590e-03, -1.81928482e-02,
       -7.39204325e-03, -1.24990428e-03, -6.33872906e-03, 5.14412625e-03,
       -6.01913081e-04, 1.05560031e-02, 6.92948746e-03, -3.06736468e-03,
       -4.26243432e-03, -4.33405722e-03, 1.43258262e-03, -3.30140139e-03,
       -2.16507968e-02, -7.53097050e-03, 5.14375512e-03, -8.21994804e-03,
       -1.28728561e-02, -7.86943827e-04, 2.26234109e-03, 1.03054298e-02,
       -4.29057050e-03, 7.62187829e-03, -1.59696192e-02, 1.08836699e-04,
       -8.90564732e-03, 1.35104340e-02, 3.57761513e-03, 7.37433694e-03,
       -1.66523289e-02, -1.63009092e-02, -1.29877413e-02,
       -5.93134959e-04, 5.74791571e-03, -1.45815185e-03, -3.73771880e-03,
       -3.75292636e-03, -9.78036344e-01 ]
